//-----------------------------------------------------------------------------
// Network: SingleMu_2012_HLT_j1ptg200_100K
// Inputs:
//                                                  Offset       Scale
//    MR                                         6.727e+02   2.827e+02
//    R2                                         3.937e-02   5.178e-02
//
// Created: Mon Oct 22 04:13:10 2012
//-----------------------------------------------------------------------------
#include <cmath>
#include <vector>
#include <iostream>
#include <stdlib.h>
//-----------------------------------------------------------------------------
// Make following visible only to this programming unit
namespace {
  // NOTE: Network indices start at 0
  static const int nnetworks=100;
  static const int ninputs  =2;
  static const int nhidden  =15;
  static const int nparams  =61;

  static const double mean[ninputs]={
  6.72700e+02,
  3.93700e-02
  };

  static const double sigma[ninputs]={
  2.82700e+02,
  5.17800e-02
  };

  static const double weight[nnetworks][nparams]={
    {  -1.781,    0.071,   -0.630,   -0.513,    0.384,    1.761,   -1.126,
        0.082,   -0.719,    0.102,    0.024,    0.465,    2.935,   -0.206,
        2.680,    1.095,   -1.155,   -1.056,    1.129,    2.051,    0.078,
        0.445,   -0.063,   -1.531,   -0.581,   -2.393,   -0.251,    2.252,
        0.465,   -0.191,   -1.982,   -0.223,   -0.164,    1.309,    1.487,
        0.453,   -1.489,    0.192,    0.460,   -0.902,    0.288,    0.222,
        0.974,    0.141,   -0.374,  -10.889,   -1.868,    1.637,   -2.666,
        0.699,    2.307,   -0.493,    2.020,    2.138,   -1.974,    1.663,
       -1.077,   -1.544,    0.714,    2.186,    2.169
    },
    {  -1.705,    0.102,   -0.685,   -0.624,    0.407,    1.692,   -1.005,
       -0.003,   -0.621,   -0.018,    0.022,    0.367,    2.904,   -0.261,
        2.618,    1.048,   -1.113,   -1.123,    1.285,    2.085,    0.079,
        0.564,   -0.106,   -1.441,   -0.416,   -2.273,   -0.233,    2.136,
        0.526,   -0.144,   -2.106,   -0.237,   -0.314,    1.151,    1.370,
        0.570,   -1.539,    0.314,    0.393,   -0.743,    0.185,    0.125,
        0.924,    0.214,   -0.274,  -10.929,   -1.695,    1.661,   -2.761,
        0.883,    2.338,   -0.507,    2.166,    2.170,   -1.949,    1.798,
       -1.217,   -1.745,    0.926,    2.061,    2.247
    },
    {  -1.747,    0.065,   -0.704,   -0.586,    0.426,    1.698,   -0.974,
       -0.026,   -0.598,   -0.043,    0.025,    0.387,    2.933,   -0.313,
        2.583,    0.999,   -1.034,   -1.120,    1.326,    2.048,    0.081,
        0.564,   -0.121,   -1.405,   -0.486,   -2.281,   -0.245,    2.106,
        0.493,   -0.217,   -2.109,   -0.271,   -0.307,    1.163,    1.420,
        0.624,   -1.607,    0.308,    0.291,   -0.804,    0.224,    0.267,
        0.945,    0.238,   -0.350,  -10.893,   -1.833,    1.603,   -2.776,
        0.939,    2.201,   -0.476,    2.214,    2.233,   -2.032,    1.765,
       -1.003,   -1.719,    0.977,    2.079,    2.281
    },
    {  -1.725,    0.085,   -0.709,   -0.562,    0.390,    1.700,   -1.055,
       -0.012,   -0.643,   -0.071,   -0.005,    0.370,    2.966,   -0.259,
        2.602,    0.907,   -1.073,   -1.252,    1.204,    2.255,    0.092,
        0.553,   -0.129,   -1.492,   -0.460,   -2.267,   -0.286,    2.081,
        0.618,   -0.173,   -2.185,   -0.315,   -0.268,    1.163,    1.410,
        0.633,   -1.560,    0.305,    0.315,   -0.767,    0.233,    0.254,
        0.934,    0.253,   -0.352,  -11.016,   -1.964,    1.634,   -2.783,
        1.091,    2.276,   -0.472,    2.125,    2.322,   -1.968,    1.796,
       -0.868,   -1.847,    0.774,    2.048,    2.267
    },
    {  -1.800,    0.051,   -0.713,   -0.502,    0.313,    1.651,   -1.094,
        0.031,   -0.788,   -0.001,    0.128,    0.386,    3.019,   -0.263,
        2.535,    1.008,   -1.066,   -1.261,    1.188,    2.270,    0.111,
        0.489,   -0.042,   -1.517,   -0.426,   -2.268,   -0.231,    1.997,
        0.650,   -0.092,   -2.176,   -0.471,   -0.065,    1.231,    1.447,
        0.704,   -1.597,    0.334,    0.308,   -0.832,    0.199,    0.201,
        1.021,    0.162,   -0.261,  -10.933,   -1.914,    1.717,   -2.798,
        0.997,    2.353,   -0.409,    2.130,    2.340,   -1.820,    1.696,
       -0.830,   -1.866,    0.797,    2.185,    2.578
    },
    {  -1.797,   -0.015,   -0.675,   -0.495,    0.328,    1.671,   -1.104,
        0.068,   -0.779,    0.067,    0.160,    0.459,    2.977,   -0.253,
        2.497,    1.079,   -1.156,   -1.256,    1.206,    2.275,    0.158,
        0.513,   -0.064,   -1.549,   -0.420,   -2.249,   -0.187,    1.956,
        0.710,   -0.101,   -2.159,   -0.478,   -0.135,    1.167,    1.434,
        0.744,   -1.686,    0.309,    0.314,   -0.812,    0.193,    0.198,
        1.050,    0.131,   -0.293,  -10.887,   -2.010,    1.760,   -2.787,
        1.116,    2.254,   -0.413,    2.163,    2.331,   -1.869,    1.682,
       -0.630,   -1.828,    0.720,    2.323,    2.538
    },
    {  -1.759,    0.082,   -0.641,   -0.640,    0.301,    1.643,   -1.072,
        0.028,   -0.892,    0.014,    0.240,    0.531,    2.958,   -0.262,
        2.414,    1.055,   -1.185,   -1.235,    1.145,    2.338,    0.120,
        0.516,   -0.038,   -1.531,   -0.454,   -2.310,   -0.264,    1.894,
        0.705,   -0.107,   -2.154,   -0.490,   -0.161,    1.190,    1.407,
        0.683,   -1.654,    0.319,    0.270,   -0.794,    0.228,    0.307,
        0.933,    0.123,   -0.353,  -10.860,   -2.107,    1.685,   -2.710,
        1.144,    2.290,   -0.308,    1.993,    2.377,   -1.746,    1.874,
       -0.825,   -1.832,    0.779,    2.156,    2.448
    },
    {  -1.717,    0.097,   -0.666,   -0.567,    0.286,    1.651,   -1.135,
       -0.009,   -0.845,    0.073,    0.261,    0.675,    2.855,   -0.341,
        2.297,    1.065,   -1.162,   -1.233,    1.127,    2.359,    0.196,
        0.455,   -0.092,   -1.648,   -0.354,   -2.347,   -0.182,    1.871,
        0.695,   -0.140,   -2.140,   -0.641,   -0.153,    1.152,    1.508,
        0.674,   -1.731,    0.317,    0.379,   -0.840,    0.249,    0.359,
        0.888,    0.100,   -0.436,  -10.790,   -2.098,    1.837,   -2.854,
        1.267,    2.129,   -0.369,    1.909,    2.457,   -1.653,    1.834,
       -0.918,   -1.845,    0.647,    2.230,    2.634
    },
    {  -1.771,    0.030,   -0.603,   -0.555,    0.367,    1.620,   -1.058,
        0.058,   -0.821,    0.053,    0.205,    0.598,    2.862,   -0.342,
        2.341,    1.108,   -1.170,   -1.277,    1.033,    2.335,    0.148,
        0.405,   -0.121,   -1.569,   -0.453,   -2.276,   -0.266,    1.823,
        0.717,   -0.144,   -2.149,   -0.487,   -0.164,    1.114,    1.444,
        0.684,   -1.657,    0.339,    0.377,   -0.826,    0.257,    0.324,
        0.946,    0.100,   -0.465,  -10.897,   -2.189,    1.731,   -2.897,
        1.376,    2.072,   -0.422,    1.960,    2.434,   -1.775,    1.595,
       -1.005,   -1.885,    0.555,    2.190,    2.697
    },
    {  -1.838,   -0.043,   -0.562,   -0.502,    0.328,    1.707,   -0.958,
        0.016,   -0.840,    0.006,    0.198,    0.480,    2.866,   -0.341,
        2.312,    0.956,   -1.102,   -1.259,    1.000,    2.272,    0.111,
        0.393,   -0.099,   -1.450,   -0.505,   -2.306,   -0.233,    1.919,
        0.699,   -0.104,   -2.239,   -0.526,   -0.154,    1.247,    1.387,
        0.620,   -1.602,    0.333,    0.358,   -0.872,    0.244,    0.434,
        0.976,    0.108,   -0.522,  -10.784,   -2.085,    1.625,   -2.793,
        1.392,    1.996,   -0.397,    1.878,    2.461,   -1.727,    1.760,
       -0.998,   -1.735,    0.567,    2.096,    2.666
    },
    {  -1.772,    0.117,   -0.476,   -0.379,    0.367,    1.673,   -1.006,
        0.020,   -0.726,   -0.092,    0.119,    0.335,    2.783,   -0.357,
        2.343,    0.835,   -1.035,   -1.135,    1.075,    2.263,    0.149,
        0.348,   -0.098,   -1.524,   -0.526,   -2.259,   -0.212,    1.923,
        0.812,   -0.085,   -2.103,   -0.617,   -0.263,    1.275,    1.322,
        0.510,   -1.636,    0.432,    0.254,   -0.725,    0.257,    0.577,
        0.879,    0.238,   -0.518,  -10.685,   -2.079,    1.647,   -2.732,
        1.332,    1.918,   -0.416,    1.869,    2.426,   -1.602,    1.815,
       -0.990,   -1.878,    0.491,    2.101,    2.650
    },
    {  -1.864,    0.078,   -0.627,   -0.403,    0.422,    1.722,   -1.051,
        0.002,   -0.830,   -0.054,    0.146,    0.526,    2.946,   -0.365,
        2.363,    0.886,   -0.988,   -1.174,    1.033,    2.257,    0.118,
        0.352,   -0.105,   -1.459,   -0.502,   -2.243,   -0.225,    1.909,
        0.696,   -0.098,   -2.227,   -0.537,   -0.131,    1.155,    1.367,
        0.511,   -1.585,    0.427,    0.246,   -0.861,    0.178,    0.528,
        0.896,    0.217,   -0.513,  -10.609,   -2.197,    1.708,   -2.582,
        1.054,    1.830,   -0.399,    1.833,    2.486,   -1.843,    1.769,
       -1.224,   -1.905,    0.580,    2.175,    2.511
    },
    {  -1.769,    0.072,   -0.477,   -0.322,    0.364,    1.813,   -1.028,
        0.042,   -0.808,   -0.161,    0.184,    0.651,    2.891,   -0.349,
        2.196,    0.832,   -0.950,   -1.174,    0.942,    2.236,    0.099,
        0.360,   -0.096,   -1.619,   -0.519,   -2.239,   -0.254,    1.858,
        0.592,   -0.095,   -2.191,   -0.506,   -0.084,    0.980,    1.204,
        0.488,   -1.472,    0.305,    0.291,   -0.896,    0.222,    0.571,
        0.870,    0.268,   -0.517,  -10.751,   -2.211,    1.627,   -2.466,
        1.277,    1.788,   -0.510,    1.719,    2.496,   -1.796,    1.977,
       -1.307,   -1.972,    0.439,    2.170,    2.640
    },
    {  -1.813,    0.074,   -0.487,   -0.394,    0.359,    1.740,   -0.999,
        0.014,   -0.847,   -0.061,    0.197,    0.586,    2.914,   -0.358,
        2.188,    0.828,   -0.957,   -1.141,    0.991,    2.295,    0.107,
        0.421,   -0.132,   -1.637,   -0.536,   -2.268,   -0.226,    1.975,
        0.608,   -0.085,   -2.293,   -0.395,   -0.159,    1.050,    1.208,
        0.568,   -1.507,    0.213,    0.338,   -0.815,    0.234,    0.494,
        0.913,    0.350,   -0.531,  -10.828,   -2.212,    1.684,   -2.499,
        1.286,    1.852,   -0.416,    1.657,    2.385,   -1.919,    1.789,
       -1.366,   -2.010,    0.520,    2.116,    2.512
    },
    {  -1.759,    0.166,   -0.127,   -0.436,    0.368,    1.810,   -1.089,
       -0.002,   -0.878,   -0.028,    0.210,    0.425,    2.926,   -0.336,
        2.386,    0.871,   -0.983,   -1.021,    1.050,    2.310,    0.137,
        0.413,   -0.082,   -1.629,   -0.529,   -2.343,   -0.154,    1.996,
        0.491,   -0.085,   -2.254,   -0.362,   -0.056,    1.316,    1.339,
        0.492,   -1.556,    0.317,    0.150,   -0.821,    0.167,    0.445,
        0.920,    0.182,   -0.476,  -10.720,   -2.136,    1.951,   -2.554,
        1.444,    1.897,   -0.350,    1.482,    2.457,   -1.855,    1.849,
       -1.401,   -1.921,    0.501,    2.132,    2.469
    },
    {  -1.777,    0.126,   -0.112,   -0.463,    0.407,    1.777,   -1.101,
        0.034,   -0.843,   -0.021,    0.125,    0.514,    2.980,   -0.357,
        2.384,    0.897,   -0.974,   -0.984,    1.071,    2.351,    0.063,
        0.437,   -0.106,   -1.696,   -0.509,   -2.260,   -0.206,    2.041,
        0.464,   -0.104,   -2.245,   -0.429,   -0.064,    1.378,    1.272,
        0.464,   -1.520,    0.324,    0.156,   -0.726,    0.164,    0.395,
        0.900,    0.179,   -0.503,  -10.674,   -2.180,    1.765,   -2.671,
        1.441,    1.707,   -0.407,    1.559,    2.298,   -1.913,    1.917,
       -1.399,   -1.970,    0.636,    2.179,    2.462
    },
    {  -1.793,    0.117,   -0.075,   -0.524,    0.384,    1.815,   -1.063,
        0.049,   -0.903,   -0.090,    0.083,    0.517,    2.826,   -0.321,
        2.330,    0.928,   -1.018,   -0.993,    1.052,    2.312,    0.110,
        0.411,   -0.094,   -1.678,   -0.536,   -2.266,   -0.176,    1.974,
        0.432,   -0.063,   -2.232,   -0.434,   -0.019,    1.387,    1.292,
        0.438,   -1.541,    0.397,   -0.038,   -0.714,    0.218,    0.401,
        0.869,    0.141,   -0.522,  -10.651,   -2.173,    1.729,   -2.632,
        1.320,    1.699,   -0.437,    1.585,    2.324,   -1.891,    1.868,
       -1.405,   -1.732,    0.467,    2.161,    2.450
    },
    {  -1.652,    0.128,   -0.020,   -0.376,    0.344,    1.689,   -1.028,
        0.063,   -0.839,   -0.071,    0.035,    0.351,    2.799,   -0.297,
        2.339,    0.834,   -0.937,   -0.826,    1.185,    2.384,    0.047,
        0.369,   -0.051,   -1.681,   -0.558,   -2.274,   -0.255,    1.890,
        0.322,   -0.106,   -2.125,   -0.230,    0.021,    1.415,    1.393,
        0.423,   -1.436,    0.271,    0.249,   -0.740,    0.281,    0.488,
        0.872,    0.208,   -0.544,  -10.643,   -2.073,    1.846,   -2.360,
        1.207,    1.595,   -0.411,    1.537,    2.180,   -1.945,    1.899,
       -1.425,   -1.640,    0.332,    1.931,    2.317
    },
    {  -1.585,    0.129,   -0.006,   -0.273,    0.325,    1.702,   -1.001,
        0.061,   -0.698,    0.062,    0.032,    0.301,    2.768,   -0.282,
        2.426,    0.792,   -1.000,   -0.757,    1.183,    2.415,    0.167,
        0.274,   -0.075,   -1.788,   -0.489,   -2.252,   -0.130,    1.824,
        0.298,   -0.059,   -2.139,   -0.263,    0.058,    1.259,    1.445,
        0.522,   -1.347,    0.236,    0.234,   -0.710,    0.274,    0.701,
        0.925,    0.207,   -0.679,  -10.720,   -1.935,    1.912,   -2.425,
        1.305,    1.456,   -0.457,    1.643,    2.161,   -1.974,    1.914,
       -1.406,   -1.623,    0.339,    2.038,    2.427
    },
    {  -1.596,    0.159,   -0.078,   -0.265,    0.312,    1.670,   -1.057,
        0.057,   -0.694,    0.064,   -0.006,    0.303,    2.693,   -0.252,
        2.511,    0.778,   -1.069,   -0.781,    1.178,    2.368,    0.228,
        0.327,   -0.050,   -1.717,   -0.557,   -2.279,   -0.113,    1.897,
        0.372,   -0.095,   -2.021,   -0.363,   -0.056,    1.392,    1.449,
        0.546,   -1.409,    0.285,    0.188,   -0.766,    0.269,    0.713,
        0.933,    0.228,   -0.694,  -10.653,   -1.907,    1.992,   -2.235,
        1.366,    1.438,   -0.474,    1.641,    2.232,   -1.900,    2.023,
       -1.504,   -1.691,    0.386,    2.156,    2.526
    },
    {  -1.648,    0.216,   -0.165,   -0.277,    0.350,    1.701,   -1.056,
        0.059,   -0.750,    0.124,    0.091,    0.353,    2.704,   -0.217,
        2.509,    0.760,   -1.007,   -0.756,    1.179,    2.405,    0.148,
        0.289,   -0.040,   -1.711,   -0.549,   -2.312,   -0.174,    2.006,
        0.426,   -0.113,   -1.870,   -0.426,    0.017,    1.340,    1.526,
        0.559,   -1.373,    0.209,    0.231,   -0.772,    0.266,    0.721,
        0.849,    0.163,   -0.731,  -10.642,   -1.990,    1.993,   -2.166,
        1.220,    1.626,   -0.393,    1.647,    2.184,   -1.859,    1.846,
       -1.424,   -1.684,    0.286,    2.085,    2.442
    },
    {  -1.680,    0.132,   -0.151,   -0.344,    0.309,    1.705,   -1.136,
        0.066,   -0.729,    0.252,    0.177,    0.389,    2.682,   -0.285,
        2.554,    0.902,   -1.044,   -0.740,    1.008,    2.460,    0.149,
        0.303,   -0.047,   -1.669,   -0.611,   -2.398,   -0.179,    2.091,
        0.345,   -0.057,   -1.726,   -0.391,    0.090,    1.387,    1.407,
        0.713,   -1.481,    0.123,    0.262,   -0.595,    0.237,    0.691,
        0.828,    0.099,   -0.701,  -10.597,   -2.154,    1.958,   -2.098,
        1.423,    1.524,   -0.398,    1.489,    2.204,   -1.812,    1.806,
       -1.261,   -1.719,    0.268,    2.227,    2.517
    },
    {  -1.754,    0.041,   -0.254,   -0.222,    0.289,    1.745,   -1.115,
        0.153,   -0.602,    0.241,    0.097,    0.442,    2.694,   -0.215,
        2.634,    0.900,   -0.979,   -0.688,    0.908,    2.304,    0.183,
        0.279,   -0.036,   -1.794,   -0.574,   -2.344,   -0.155,    1.966,
        0.187,    0.122,   -1.633,   -0.397,    0.093,    1.453,    1.387,
        0.723,   -1.554,    0.188,    0.052,   -0.660,    0.258,    0.432,
        0.923,    0.185,   -0.539,  -10.564,   -2.198,    1.881,   -2.219,
        1.486,    1.463,   -0.328,    1.531,    2.114,   -1.689,    1.823,
       -1.220,   -1.618,    0.300,    2.336,    2.415
    },
    {  -1.777,    0.086,   -0.300,   -0.248,    0.276,    1.738,   -1.021,
        0.167,   -0.526,    0.317,    0.159,    0.407,    2.686,   -0.183,
        2.637,    0.888,   -1.075,   -0.716,    0.890,    2.335,    0.215,
        0.323,   -0.059,   -1.831,   -0.608,   -2.432,   -0.175,    2.010,
        0.202,    0.099,   -1.703,   -0.402,    0.115,    1.377,    1.378,
        0.739,   -1.561,    0.188,    0.108,   -0.684,    0.259,    0.501,
        0.929,    0.240,   -0.579,  -10.298,   -2.138,    2.118,   -1.963,
        1.200,    1.575,   -0.351,    1.809,    2.179,   -1.428,    1.879,
       -1.198,   -1.858,    0.349,    2.374,    2.569
    },
    {  -1.778,    0.099,   -0.358,   -0.269,    0.277,    1.763,   -1.049,
        0.150,   -0.551,    0.403,    0.083,    0.394,    2.687,   -0.151,
        2.697,    0.837,   -1.033,   -0.744,    0.946,    2.377,    0.146,
        0.282,   -0.046,   -1.741,   -0.600,   -2.431,   -0.190,    1.967,
        0.194,   -0.032,   -1.614,   -0.346,    0.090,    1.352,    1.391,
        0.615,   -1.706,    0.315,    0.103,   -0.630,    0.217,    0.510,
        0.795,    0.184,   -0.620,  -10.384,   -2.198,    1.888,   -2.004,
        1.461,    1.755,   -0.478,    1.755,    2.041,   -1.578,    1.905,
       -1.141,   -1.826,    0.532,    2.442,    2.595
    },
    {  -1.630,    0.175,   -0.512,   -0.291,    0.327,    1.810,   -1.200,
        0.004,   -0.298,    0.571,    0.069,    0.428,    2.643,   -0.131,
        2.652,    0.921,   -1.060,   -0.745,    0.927,    2.439,    0.137,
        0.262,    0.000,   -1.828,   -0.572,   -2.359,   -0.213,    1.959,
        0.092,   -0.034,   -1.575,   -0.401,    0.086,    1.127,    1.401,
        0.537,   -1.720,    0.282,    0.121,   -0.622,    0.098,    0.478,
        0.813,    0.259,   -0.526,  -10.664,   -2.207,    2.245,   -1.954,
        1.557,    1.819,   -0.395,    1.732,    2.245,   -1.700,    1.773,
       -1.128,   -1.946,    0.507,    2.430,    2.625
    },
    {  -1.764,    0.113,   -0.561,   -0.276,    0.348,    1.894,   -1.207,
        0.046,   -0.335,    0.522,    0.112,    0.398,    2.716,   -0.134,
        2.706,    0.867,   -0.994,   -0.738,    0.887,    2.347,    0.113,
        0.267,   -0.014,   -1.860,   -0.606,   -2.427,   -0.220,    1.843,
        0.089,   -0.113,   -1.500,   -0.413,   -0.010,    1.252,    1.473,
        0.598,   -1.693,    0.318,    0.188,   -0.645,    0.043,    0.506,
        0.828,    0.285,   -0.542,  -10.744,   -2.202,    2.211,   -2.051,
        1.595,    1.896,   -0.402,    1.931,    2.249,   -1.544,    1.886,
       -1.025,   -2.054,    0.501,    2.343,    2.541
    },
    {  -1.716,    0.087,   -0.533,   -0.275,    0.342,    1.873,   -1.118,
        0.029,   -0.361,    0.527,    0.109,    0.316,    2.718,   -0.170,
        2.655,    0.880,   -1.013,   -0.830,    0.899,    2.312,    0.181,
        0.282,   -0.103,   -1.737,   -0.556,   -2.262,   -0.131,    1.774,
        0.185,    0.010,   -1.544,   -0.476,    0.158,    1.307,    1.444,
        0.612,   -1.535,    0.303,    0.290,   -0.581,    0.126,    0.634,
        0.744,    0.324,   -0.616,  -10.745,   -2.338,    2.068,   -1.966,
        1.594,    1.968,   -0.332,    2.076,    2.160,   -1.334,    2.007,
       -0.847,   -2.032,    0.581,    2.335,    2.572
    },
    {  -1.730,    0.091,   -0.505,   -0.306,    0.338,    1.698,   -1.044,
       -0.073,   -0.449,    0.378,    0.174,    0.356,    2.675,   -0.158,
        2.650,    0.889,   -0.983,   -0.910,    0.974,    2.328,    0.176,
        0.328,   -0.041,   -1.555,   -0.572,   -2.218,   -0.103,    1.789,
        0.160,   -0.069,   -1.554,   -0.462,    0.141,    1.359,    1.487,
        0.528,   -1.562,    0.258,    0.330,   -0.622,    0.031,    0.641,
        0.716,    0.298,   -0.636,  -10.670,   -2.434,    1.984,   -1.964,
        1.557,    2.167,   -0.275,    2.142,    2.235,   -1.426,    1.946,
       -0.862,   -2.145,    0.607,    2.338,    2.470
    },
    {  -1.666,    0.094,   -0.497,   -0.222,    0.332,    1.731,   -1.133,
       -0.049,   -0.425,    0.401,    0.131,    0.382,    2.683,   -0.175,
        2.597,    0.951,   -0.977,   -0.855,    0.959,    2.268,    0.145,
        0.294,   -0.036,   -1.635,   -0.526,   -2.284,   -0.161,    1.834,
        0.247,   -0.025,   -1.513,   -0.488,    0.132,    1.388,    1.495,
        0.635,   -1.578,    0.320,    0.300,   -0.561,    0.042,    0.632,
        0.690,    0.283,   -0.563,  -10.551,   -2.312,    1.926,   -1.886,
        1.699,    2.216,   -0.265,    2.154,    2.152,   -1.385,    1.880,
       -0.800,   -2.248,    0.698,    2.201,    2.595
    },
    {  -1.653,    0.052,   -0.488,   -0.125,    0.335,    1.864,   -1.150,
       -0.154,   -0.378,    0.415,    0.092,    0.325,    2.804,   -0.224,
        2.611,    0.906,   -0.912,   -0.861,    0.989,    2.372,    0.166,
        0.257,   -0.092,   -1.741,   -0.491,   -2.267,   -0.204,    1.860,
        0.273,   -0.118,   -1.579,   -0.664,    0.199,    1.427,    1.447,
        0.693,   -1.449,    0.269,    0.293,   -0.576,    0.110,    0.624,
        0.823,    0.375,   -0.563,  -10.652,   -2.413,    1.928,   -2.024,
        1.751,    2.195,   -0.264,    1.895,    2.315,   -1.403,    1.920,
       -0.757,   -2.165,    0.887,    2.175,    2.280
    },
    {  -1.649,    0.078,   -0.476,   -0.128,    0.333,    1.925,   -1.183,
       -0.050,   -0.235,    0.446,    0.125,    0.443,    2.838,   -0.268,
        2.560,    0.801,   -0.842,   -0.872,    0.917,    2.398,    0.171,
        0.255,   -0.152,   -1.713,   -0.596,   -2.316,   -0.093,    1.991,
        0.335,   -0.059,   -1.386,   -0.753,    0.071,    1.350,    1.495,
        0.615,   -1.517,    0.361,    0.439,   -0.505,    0.171,    0.673,
        0.801,    0.391,   -0.548,  -10.827,   -2.374,    1.927,   -1.916,
        1.626,    2.189,   -0.320,    1.848,    2.433,   -1.397,    1.951,
       -0.861,   -2.016,    0.964,    2.258,    2.400
    },
    {  -1.531,    0.082,   -0.500,   -0.089,    0.339,    2.033,   -1.085,
        0.078,   -0.388,    0.443,    0.118,    0.400,    2.818,   -0.255,
        2.426,    0.718,   -0.846,   -0.906,    1.013,    2.431,    0.152,
        0.211,   -0.057,   -1.699,   -0.546,   -2.308,   -0.196,    1.992,
        0.453,   -0.119,   -1.416,   -0.711,    0.011,    1.308,    1.478,
        0.577,   -1.581,    0.339,    0.410,   -0.493,    0.222,    0.611,
        0.882,    0.316,   -0.577,  -10.974,   -2.430,    1.681,   -1.931,
        1.559,    2.176,   -0.328,    1.828,    2.323,   -1.590,    1.962,
       -0.938,   -2.157,    0.877,    2.200,    2.292
    },
    {  -1.562,    0.136,   -0.384,   -0.186,    0.372,    2.139,   -1.305,
        0.048,   -0.378,    0.356,    0.168,    0.504,    2.812,   -0.234,
        2.491,    0.777,   -0.826,   -0.860,    0.990,    2.424,    0.152,
        0.255,   -0.030,   -1.617,   -0.564,   -2.123,   -0.108,    1.942,
        0.446,   -0.002,   -1.515,   -0.635,    0.049,    1.495,    1.547,
        0.632,   -1.504,    0.286,    0.640,   -0.549,    0.173,    0.486,
        0.988,    0.192,   -0.585,  -10.908,   -2.338,    1.719,   -2.034,
        1.403,    2.223,   -0.326,    1.858,    2.263,   -1.562,    1.945,
       -0.863,   -2.225,    0.730,    2.231,    2.404
    },
    {  -1.603,    0.103,   -0.384,   -0.119,    0.312,    2.023,   -1.265,
       -0.053,   -0.224,    0.468,    0.075,    0.487,    2.791,   -0.243,
        2.539,    0.786,   -0.806,   -0.836,    0.946,    2.490,    0.117,
        0.215,   -0.050,   -1.639,   -0.598,   -2.185,   -0.166,    1.968,
        0.406,   -0.077,   -1.470,   -0.687,   -0.019,    1.627,    1.565,
        0.647,   -1.553,    0.213,    0.537,   -0.505,    0.202,    0.490,
        0.946,    0.283,   -0.496,  -10.695,   -2.413,    1.923,   -1.848,
        1.348,    2.059,   -0.302,    1.798,    2.381,   -1.476,    1.992,
       -0.709,   -2.204,    0.651,    2.321,    2.418
    },
    {  -1.546,    0.132,   -0.347,   -0.086,    0.320,    2.017,   -1.396,
       -0.111,   -0.177,    0.432,    0.058,    0.470,    2.703,   -0.270,
        2.484,    0.800,   -0.765,   -0.787,    0.965,    2.426,    0.149,
        0.175,   -0.105,   -1.694,   -0.656,   -2.198,   -0.179,    1.989,
        0.395,   -0.066,   -1.506,   -0.701,    0.053,    1.655,    1.570,
        0.794,   -1.689,    0.301,    0.469,   -0.460,    0.262,    0.494,
        0.878,    0.261,   -0.473,  -10.802,   -2.418,    1.940,   -1.757,
        1.429,    2.047,   -0.156,    1.843,    2.295,   -1.543,    2.039,
       -0.837,   -2.223,    0.770,    2.429,    2.462
    },
    {  -1.534,    0.095,   -0.465,   -0.104,    0.278,    1.808,   -1.249,
       -0.105,    0.027,    0.454,    0.151,    0.468,    2.743,   -0.278,
        2.488,    0.773,   -0.731,   -0.801,    1.054,    2.339,    0.193,
        0.264,   -0.064,   -1.765,   -0.600,   -2.094,   -0.121,    1.950,
        0.349,   -0.073,   -1.553,   -0.676,   -0.048,    1.370,    1.372,
        0.694,   -1.634,    0.242,    0.395,   -0.377,    0.174,    0.486,
        0.824,    0.204,   -0.470,  -11.053,   -2.361,    1.979,   -1.739,
        1.328,    2.105,   -0.410,    2.012,    2.133,   -1.757,    2.140,
       -0.694,   -2.259,    0.740,    2.284,    2.343
    },
    {  -1.507,    0.080,   -0.521,   -0.037,    0.242,    1.766,   -1.188,
       -0.109,   -0.017,    0.562,    0.136,    0.426,    2.739,   -0.232,
        2.517,    0.711,   -0.733,   -0.710,    0.997,    2.320,    0.130,
        0.147,   -0.071,   -1.771,   -0.600,   -2.075,   -0.137,    1.903,
        0.311,   -0.060,   -1.551,   -0.822,   -0.048,    1.381,    1.442,
        0.803,   -1.679,    0.294,    0.465,   -0.428,    0.184,    0.663,
        0.676,    0.193,   -0.488,  -10.941,   -2.343,    2.063,   -1.808,
        1.390,    2.177,   -0.375,    1.946,    2.111,   -1.724,    2.117,
       -0.689,   -2.306,    0.705,    2.115,    2.499
    },
    {  -1.392,    0.084,   -0.551,   -0.023,    0.242,    1.846,   -1.194,
       -0.122,    0.015,    0.501,    0.080,    0.290,    2.699,   -0.204,
        2.514,    0.658,   -0.847,   -0.715,    0.921,    2.225,    0.122,
        0.194,   -0.158,   -1.795,   -0.567,   -2.140,   -0.232,    1.910,
        0.229,   -0.112,   -1.658,   -0.667,    0.006,    1.201,    1.411,
        0.796,   -1.613,    0.276,    0.331,   -0.372,    0.226,    0.816,
        0.541,    0.232,   -0.479,  -10.854,   -2.301,    2.072,   -1.786,
        1.413,    2.283,   -0.397,    1.983,    2.293,   -1.803,    2.115,
       -0.807,   -2.327,    0.906,    2.071,    2.399
    },
    {  -1.501,    0.064,   -0.586,   -0.080,    0.302,    1.917,   -1.201,
       -0.080,    0.006,    0.518,    0.077,    0.292,    2.702,   -0.216,
        2.559,    0.640,   -0.765,   -0.620,    0.928,    2.209,    0.097,
        0.176,   -0.138,   -1.789,   -0.611,   -2.195,   -0.261,    1.932,
        0.284,   -0.112,   -1.626,   -0.755,   -0.037,    1.391,    1.476,
        0.913,   -1.560,    0.294,    0.361,   -0.407,    0.203,    0.751,
        0.568,    0.169,   -0.452,  -10.888,   -2.395,    2.155,   -1.709,
        1.388,    2.506,   -0.349,    2.022,    2.335,   -1.680,    2.307,
       -0.532,   -2.271,    1.038,    2.099,    2.604
    },
    {  -1.520,    0.053,   -0.571,   -0.078,    0.284,    1.841,   -1.207,
        0.012,    0.030,    0.455,    0.061,    0.335,    2.711,   -0.207,
        2.567,    0.617,   -0.749,   -0.655,    1.031,    2.225,    0.085,
        0.130,   -0.089,   -1.688,   -0.600,   -2.214,   -0.209,    1.903,
        0.382,   -0.074,   -1.657,   -0.779,   -0.061,    1.400,    1.495,
        0.836,   -1.537,    0.275,    0.438,   -0.340,    0.201,    0.669,
        0.534,    0.179,   -0.458,  -10.877,   -2.494,    2.046,   -1.719,
        1.183,    2.376,   -0.319,    1.922,    2.167,   -1.866,    2.251,
       -0.616,   -2.299,    0.943,    2.058,    2.530
    },
    {  -1.607,    0.078,   -0.608,   -0.031,    0.273,    1.874,   -1.248,
        0.023,   -0.009,    0.476,    0.090,    0.348,    2.767,   -0.262,
        2.546,    0.583,   -0.706,   -0.493,    1.046,    2.285,    0.097,
        0.169,   -0.054,   -1.769,   -0.564,   -2.222,   -0.217,    1.993,
        0.312,   -0.102,   -1.556,   -0.852,   -0.002,    1.482,    1.486,
        0.882,   -1.573,    0.302,    0.359,   -0.404,    0.242,    0.656,
        0.547,    0.136,   -0.410,  -10.813,   -2.599,    2.068,   -1.776,
        1.103,    2.326,   -0.297,    1.790,    2.123,   -1.816,    2.239,
       -0.666,   -2.401,    0.940,    2.107,    2.560
    },
    {  -1.549,    0.019,   -0.619,   -0.036,    0.305,    1.876,   -1.250,
       -0.051,   -0.016,    0.499,    0.112,    0.376,    2.831,   -0.308,
        2.471,    0.641,   -0.720,   -0.465,    1.059,    2.225,    0.115,
        0.145,   -0.102,   -1.687,   -0.624,   -2.279,   -0.157,    2.053,
        0.317,   -0.050,   -1.531,   -0.785,    0.044,    1.522,    1.468,
        0.901,   -1.598,    0.279,    0.374,   -0.433,    0.241,    0.634,
        0.474,    0.165,   -0.384,  -10.969,   -2.623,    1.951,   -1.705,
        1.070,    2.399,   -0.255,    1.836,    1.951,   -1.788,    2.352,
       -0.857,   -2.535,    0.809,    2.047,    2.463
    },
    {  -1.479,    0.033,   -0.668,   -0.011,    0.317,    1.763,   -1.256,
       -0.127,   -0.022,    0.490,    0.015,    0.404,    2.817,   -0.292,
        2.375,    0.685,   -0.749,   -0.556,    1.104,    2.245,    0.115,
        0.256,   -0.143,   -1.771,   -0.590,   -2.213,   -0.166,    2.020,
        0.436,   -0.006,   -1.551,   -0.912,    0.033,    1.556,    1.475,
        0.910,   -1.637,    0.395,    0.417,   -0.444,    0.237,    0.573,
        0.429,    0.237,   -0.372,  -11.041,   -2.619,    2.072,   -1.823,
        1.073,    2.416,   -0.061,    1.665,    1.919,   -1.809,    2.330,
       -0.758,   -2.537,    0.654,    1.991,    2.454
    },
    {  -1.562,    0.066,   -0.572,   -0.020,    0.298,    1.889,   -1.414,
        0.002,   -0.113,    0.410,    0.020,    0.278,    2.871,   -0.260,
        2.569,    0.694,   -0.870,   -0.500,    1.175,    2.365,    0.146,
        0.156,   -0.026,   -1.667,   -0.665,   -2.274,   -0.132,    2.061,
        0.353,   -0.032,   -1.558,   -0.845,    0.052,    1.635,    1.542,
        0.864,   -1.614,    0.311,    0.424,   -0.395,    0.191,    0.549,
        0.479,    0.235,   -0.353,  -10.943,   -2.540,    2.092,   -1.921,
        1.019,    2.238,   -0.206,    1.694,    2.009,   -1.951,    2.236,
       -0.765,   -2.640,    0.607,    2.067,    2.503
    },
    {  -1.560,    0.038,   -0.635,   -0.083,    0.325,    1.816,   -1.458,
        0.051,   -0.197,    0.391,    0.060,    0.281,    2.761,   -0.244,
        2.526,    0.794,   -0.806,   -0.559,    1.286,    2.343,    0.130,
        0.141,   -0.075,   -1.660,   -0.625,   -2.338,   -0.161,    2.065,
        0.375,   -0.070,   -1.448,   -0.858,    0.026,    1.657,    1.534,
        0.896,   -1.519,    0.265,    0.389,   -0.425,    0.178,    0.473,
        0.485,    0.275,   -0.363,  -10.919,   -2.499,    2.119,   -1.843,
        1.087,    2.317,   -0.202,    1.745,    1.929,   -1.914,    2.239,
       -0.850,   -2.699,    0.536,    2.015,    2.545
    },
    {  -1.588,    0.047,   -0.706,   -0.086,    0.313,    1.772,   -1.427,
        0.068,   -0.147,    0.424,    0.011,    0.188,    2.693,   -0.214,
        2.519,    0.774,   -0.872,   -0.552,    1.264,    2.276,    0.116,
        0.205,   -0.109,   -1.672,   -0.596,   -2.234,   -0.191,    2.142,
        0.339,   -0.089,   -1.439,   -0.765,    0.086,    1.670,    1.468,
        0.898,   -1.578,    0.331,    0.328,   -0.391,    0.172,    0.482,
        0.470,    0.244,   -0.404,  -10.731,   -2.577,    2.231,   -1.841,
        1.026,    2.341,   -0.291,    1.667,    1.948,   -1.992,    2.281,
       -0.805,   -2.701,    0.781,    1.870,    2.430
    },
    {  -1.458,    0.035,   -0.659,   -0.155,    0.318,    1.743,   -1.458,
        0.042,   -0.287,    0.475,    0.058,    0.262,    2.820,   -0.240,
        2.565,    0.707,   -0.749,   -0.647,    1.327,    2.324,    0.154,
        0.235,   -0.083,   -1.663,   -0.655,   -2.331,   -0.145,    2.079,
        0.400,   -0.053,   -1.487,   -0.693,    0.130,    1.677,    1.469,
        0.786,   -1.496,    0.313,    0.395,   -0.376,    0.132,    0.489,
        0.336,    0.262,   -0.380,  -10.721,   -2.495,    2.313,   -2.037,
        1.010,    2.316,   -0.172,    1.612,    2.136,   -2.070,    2.149,
       -0.935,   -2.671,    0.778,    2.018,    2.506
    },
    {  -1.368,    0.017,   -0.625,   -0.068,    0.270,    1.786,   -1.225,
       -0.045,   -0.369,    0.637,    0.010,    0.244,    2.769,   -0.242,
        2.517,    0.575,   -0.580,   -0.645,    1.262,    2.365,    0.064,
        0.121,   -0.122,   -1.741,   -0.541,   -2.314,   -0.191,    2.086,
        0.383,    0.058,   -1.661,   -0.924,    0.049,    1.651,    1.563,
        0.886,   -1.498,    0.251,    0.240,   -0.414,    0.232,    0.545,
        0.413,    0.203,   -0.452,  -10.689,   -2.519,    2.360,   -2.074,
        1.094,    2.376,   -0.095,    1.683,    2.134,   -1.969,    2.090,
       -1.000,   -2.668,    0.931,    2.108,    2.616
    },
    {  -1.431,    0.018,   -0.580,   -0.097,    0.215,    1.798,   -1.287,
        0.009,   -0.446,    0.691,   -0.028,    0.280,    2.752,   -0.177,
        2.509,    0.503,   -0.512,   -0.569,    1.294,    2.423,    0.099,
        0.145,   -0.037,   -1.738,   -0.552,   -2.291,   -0.225,    2.010,
        0.333,    0.049,   -1.685,   -0.951,    0.097,    1.651,    1.587,
        0.865,   -1.539,    0.187,    0.179,   -0.394,    0.222,    0.573,
        0.389,    0.257,   -0.491,  -10.773,   -2.639,    2.383,   -2.092,
        1.039,    2.458,   -0.022,    1.653,    2.235,   -1.970,    2.069,
       -0.886,   -2.756,    0.840,    2.357,    2.666
    },
    {  -1.249,    0.113,   -0.636,   -0.097,    0.271,    1.708,   -1.447,
       -0.040,   -0.447,    0.813,    0.034,    0.301,    2.725,   -0.133,
        2.548,    0.469,   -0.567,   -0.516,    1.275,    2.430,    0.100,
        0.035,   -0.045,   -1.691,   -0.590,   -2.283,   -0.174,    2.022,
        0.349,    0.150,   -1.734,   -0.902,    0.107,    1.719,    1.552,
        0.790,   -1.573,    0.062,    0.185,   -0.420,    0.213,    0.420,
        0.545,    0.287,   -0.452,  -10.769,   -2.482,    2.267,   -2.212,
        1.220,    2.490,   -0.075,    1.480,    2.127,   -1.989,    2.030,
       -0.976,   -2.733,    0.893,    2.340,    2.484
    },
    {  -1.410,    0.057,   -0.758,   -0.075,    0.223,    1.778,   -1.279,
       -0.065,   -0.454,    0.632,   -0.033,    0.272,    2.716,   -0.144,
        2.479,    0.489,   -0.422,   -0.534,    1.383,    2.472,    0.098,
        0.062,   -0.036,   -1.815,   -0.553,   -2.337,   -0.192,    2.009,
        0.373,    0.140,   -1.709,   -0.905,    0.135,    1.639,    1.506,
        0.886,   -1.386,    0.115,    0.205,   -0.377,    0.251,    0.497,
        0.501,    0.268,   -0.494,  -10.807,   -2.574,    2.247,   -2.249,
        1.002,    2.410,    0.006,    1.635,    2.089,   -2.028,    2.096,
       -0.853,   -2.855,    0.806,    2.318,    2.453
    },
    {  -1.234,    0.172,   -0.630,   -0.028,    0.302,    1.934,   -1.294,
       -0.139,   -0.460,    0.551,   -0.011,    0.176,    2.703,   -0.127,
        2.459,    0.497,   -0.089,   -0.542,    1.419,    2.651,    0.140,
        0.028,   -0.056,   -1.858,   -0.549,   -2.364,   -0.193,    1.827,
        0.528,    0.163,   -1.784,   -0.925,    0.198,    1.567,    1.542,
        0.813,   -1.362,    0.261,    0.297,   -0.326,    0.201,    0.466,
        0.393,    0.322,   -0.340,  -10.718,   -2.556,    2.137,   -2.333,
        1.170,    2.397,    0.169,    1.548,    2.162,   -1.981,    2.143,
       -0.778,   -2.855,    0.808,    2.318,    2.520
    },
    {  -1.162,    0.144,   -0.730,   -0.019,    0.270,    2.066,   -1.236,
       -0.209,   -0.343,    0.623,    0.066,    0.056,    2.787,   -0.207,
        2.380,    0.453,    0.033,   -0.632,    1.347,    2.661,    0.122,
        0.098,   -0.085,   -1.820,   -0.582,   -2.440,   -0.228,    1.821,
        0.547,    0.143,   -1.749,   -0.824,    0.118,    1.525,    1.577,
        0.838,   -1.257,    0.322,    0.251,   -0.393,    0.247,    0.444,
        0.409,    0.244,   -0.284,  -10.748,   -2.499,    2.024,   -2.227,
        1.166,    2.400,    0.101,    1.806,    2.219,   -1.859,    2.068,
       -0.883,   -2.841,    0.729,    2.319,    2.328
    },
    {  -1.203,    0.047,   -0.771,   -0.009,    0.291,    1.918,   -1.297,
       -0.103,   -0.353,    0.601,   -0.098,    0.122,    2.775,   -0.218,
        2.390,    0.307,    0.248,   -0.562,    1.324,    2.664,    0.130,
        0.045,   -0.055,   -1.787,   -0.550,   -2.408,   -0.230,    1.847,
        0.557,    0.145,   -1.702,   -0.713,    0.067,    1.531,    1.449,
        0.794,   -1.171,    0.213,    0.138,   -0.481,    0.244,    0.481,
        0.528,    0.316,   -0.335,  -10.637,   -2.510,    2.033,   -2.300,
        1.121,    2.293,    0.073,    1.722,    2.090,   -1.834,    2.178,
       -0.938,   -3.084,    0.688,    2.239,    2.416
    },
    {  -1.149,   -0.043,   -0.796,    0.017,    0.317,    1.922,   -1.294,
       -0.134,   -0.364,    0.599,   -0.090,    0.126,    2.736,   -0.255,
        2.443,    0.296,    0.279,   -0.514,    1.415,    2.659,    0.081,
        0.042,   -0.090,   -1.753,   -0.549,   -2.455,   -0.257,    1.944,
        0.555,    0.136,   -1.658,   -0.655,    0.097,    1.586,    1.476,
        0.835,   -1.124,    0.220,    0.149,   -0.520,    0.186,    0.517,
        0.477,    0.371,   -0.364,  -10.496,   -2.482,    2.086,   -2.117,
        1.073,    2.161,    0.102,    1.750,    2.156,   -1.776,    2.367,
       -1.104,   -3.051,    0.717,    2.241,    2.441
    },
    {  -1.193,   -0.062,   -0.831,    0.070,    0.230,    1.857,   -1.305,
       -0.048,   -0.228,    0.706,   -0.110,    0.242,    2.856,   -0.307,
        2.486,    0.271,    0.122,   -0.293,    1.516,    2.556,    0.104,
       -0.014,   -0.069,   -1.730,   -0.530,   -2.617,   -0.214,    1.892,
        0.750,    0.103,   -1.646,   -0.527,    0.122,    1.558,    1.387,
        0.897,   -1.214,    0.324,    0.308,   -0.403,    0.264,    0.540,
        0.520,    0.400,   -0.411,  -10.506,   -2.477,    2.031,   -2.039,
        1.008,    1.977,    0.033,    1.774,    2.069,   -1.700,    2.367,
       -0.976,   -3.014,    0.734,    2.219,    2.457
    },
    {  -1.240,   -0.050,   -0.800,    0.040,    0.279,    1.911,   -1.239,
       -0.058,   -0.276,    0.687,   -0.122,    0.161,    2.837,   -0.275,
        2.514,    0.322,    0.006,   -0.324,    1.406,    2.551,    0.127,
        0.098,   -0.075,   -1.752,   -0.505,   -2.669,   -0.230,    1.932,
        0.704,    0.170,   -1.635,   -0.591,    0.103,    1.556,    1.382,
        0.862,   -1.207,    0.270,    0.303,   -0.426,    0.239,    0.590,
        0.472,    0.376,   -0.391,  -10.460,   -2.374,    1.922,   -1.987,
        1.151,    2.091,    0.179,    1.603,    2.008,   -1.654,    2.401,
       -1.094,   -2.906,    0.851,    2.339,    2.476
    },
    {  -1.251,   -0.076,   -0.963,    0.139,    0.238,    1.756,   -1.232,
       -0.176,   -0.303,    0.631,   -0.063,    0.309,    2.810,   -0.260,
        2.492,    0.169,   -0.004,   -0.400,    1.400,    2.538,    0.131,
       -0.056,   -0.031,   -1.643,   -0.486,   -2.756,   -0.281,    1.948,
        0.621,   -0.038,   -1.574,   -0.630,    0.075,    1.257,    1.247,
        0.843,   -1.181,    0.329,    0.199,   -0.351,    0.122,    0.472,
        0.419,    0.465,   -0.355,  -10.448,   -2.270,    1.959,   -2.011,
        1.100,    1.990,    0.162,    1.586,    1.815,   -1.685,    2.338,
       -1.315,   -2.929,    0.924,    2.338,    2.627
    },
    {  -1.195,    0.032,   -0.960,    0.062,    0.265,    1.814,   -1.183,
       -0.258,   -0.309,    0.732,   -0.032,    0.350,    2.963,   -0.268,
        2.447,    0.206,    0.056,   -0.377,    1.394,    2.488,    0.142,
       -0.015,   -0.065,   -1.664,   -0.506,   -2.769,   -0.308,    1.958,
        0.617,   -0.075,   -1.594,   -0.567,    0.058,    1.280,    1.251,
        0.860,   -1.218,    0.347,    0.211,   -0.283,    0.121,    0.425,
        0.297,    0.450,   -0.344,  -10.484,   -2.273,    2.023,   -2.005,
        1.111,    1.963,    0.066,    1.768,    1.853,   -1.610,    2.398,
       -1.321,   -2.967,    0.858,    2.259,    2.630
    },
    {  -1.109,    0.035,   -0.982,   -0.007,    0.269,    1.676,   -1.014,
       -0.202,   -0.313,    0.671,   -0.018,    0.401,    2.844,   -0.215,
        2.397,    0.311,    0.009,   -0.365,    1.363,    2.548,    0.164,
       -0.017,   -0.100,   -1.818,   -0.495,   -2.650,   -0.223,    1.989,
        0.752,   -0.074,   -1.445,   -0.578,    0.040,    1.305,    1.190,
        0.935,   -1.324,    0.362,    0.195,   -0.154,    0.114,    0.468,
        0.310,    0.438,   -0.478,  -10.341,   -2.387,    2.084,   -2.117,
        1.096,    2.048,   -0.075,    1.620,    1.884,   -1.583,    2.359,
       -1.345,   -2.793,    1.008,    2.117,    2.438
    },
    {  -1.183,   -0.010,   -1.044,    0.047,    0.258,    1.722,   -0.970,
       -0.169,   -0.329,    0.667,   -0.064,    0.354,    2.846,   -0.222,
        2.341,    0.244,    0.116,   -0.387,    1.268,    2.539,    0.171,
       -0.100,   -0.097,   -1.854,   -0.489,   -2.692,   -0.247,    2.058,
        0.694,   -0.100,   -1.478,   -0.641,    0.063,    1.318,    1.209,
        0.907,   -1.244,    0.360,    0.227,   -0.189,    0.097,    0.516,
        0.333,    0.376,   -0.544,  -10.358,   -2.221,    2.116,   -2.116,
        1.147,    2.130,   -0.285,    1.487,    1.862,   -1.665,    2.291,
       -1.489,   -2.776,    0.932,    2.024,    2.657
    },
    {  -1.051,   -0.144,   -1.038,    0.014,    0.237,    1.598,   -1.010,
       -0.261,   -0.242,    0.585,   -0.060,    0.402,    2.713,   -0.314,
        2.333,    0.155,    0.123,   -0.477,    1.295,    2.608,    0.164,
       -0.154,   -0.082,   -1.791,   -0.523,   -2.675,   -0.217,    2.222,
        0.730,   -0.137,   -1.591,   -0.681,    0.045,    1.172,    1.171,
        0.880,   -1.406,    0.297,    0.206,   -0.133,    0.189,    0.505,
        0.317,    0.315,   -0.577,  -10.303,   -2.162,    2.105,   -2.092,
        1.222,    2.078,   -0.452,    1.517,    1.836,   -1.679,    2.190,
       -1.572,   -2.744,    0.936,    2.169,    2.705
    },
    {  -1.170,   -0.060,   -1.034,   -0.021,    0.238,    1.604,   -0.931,
       -0.287,   -0.343,    0.668,   -0.132,    0.479,    2.784,   -0.261,
        2.374,    0.206,    0.036,   -0.347,    1.244,    2.518,    0.165,
       -0.109,   -0.005,   -1.752,   -0.555,   -2.708,   -0.251,    2.200,
        0.664,   -0.110,   -1.550,   -0.656,    0.109,    1.219,    1.184,
        0.894,   -1.254,    0.309,    0.250,   -0.087,    0.133,    0.476,
        0.327,    0.368,   -0.562,  -10.389,   -2.268,    2.188,   -2.023,
        1.265,    2.082,   -0.381,    1.469,    1.989,   -1.679,    2.194,
       -1.540,   -2.727,    1.101,    2.125,    2.645
    },
    {  -1.111,   -0.063,   -1.028,   -0.033,    0.249,    1.657,   -0.936,
       -0.310,   -0.367,    0.709,   -0.091,    0.480,    2.718,   -0.254,
        2.312,    0.176,   -0.036,   -0.288,    1.249,    2.490,    0.148,
       -0.115,   -0.005,   -1.766,   -0.526,   -2.614,   -0.220,    2.124,
        0.694,   -0.116,   -1.559,   -0.583,    0.076,    1.201,    1.216,
        0.852,   -1.181,    0.286,    0.226,   -0.063,    0.109,    0.437,
        0.371,    0.321,   -0.603,  -10.341,   -2.341,    2.160,   -2.064,
        1.212,    2.016,   -0.459,    1.647,    1.994,   -1.681,    2.146,
       -1.360,   -2.778,    1.057,    2.052,    2.482
    },
    {  -1.185,    0.039,   -0.959,    0.023,    0.247,    1.636,   -0.982,
       -0.393,   -0.341,    0.622,   -0.119,    0.530,    2.667,   -0.211,
        2.294,    0.095,   -0.032,   -0.262,    1.207,    2.500,    0.198,
       -0.081,   -0.020,   -1.712,   -0.477,   -2.632,   -0.201,    2.146,
        0.647,   -0.135,   -1.573,   -0.592,    0.022,    1.209,    1.190,
        0.892,   -1.142,    0.285,    0.189,   -0.129,    0.199,    0.446,
        0.303,    0.259,   -0.512,  -10.480,   -2.200,    2.113,   -2.073,
        1.363,    2.068,   -0.535,    1.678,    2.000,   -1.615,    2.310,
       -1.177,   -2.726,    0.799,    2.065,    2.444
    },
    {  -1.207,    0.014,   -0.981,    0.024,    0.260,    1.649,   -0.990,
       -0.214,   -0.309,    0.749,   -0.157,    0.536,    2.644,   -0.260,
        2.238,    0.068,   -0.114,   -0.177,    1.204,    2.553,    0.140,
       -0.189,    0.047,   -1.759,   -0.485,   -2.631,   -0.223,    2.080,
        0.803,   -0.075,   -1.670,   -0.551,   -0.024,    1.153,    1.279,
        0.785,   -1.136,    0.267,    0.060,   -0.169,    0.157,    0.394,
        0.307,    0.328,   -0.474,  -10.487,   -2.320,    2.069,   -2.230,
        1.280,    2.020,   -0.442,    1.561,    1.916,   -1.770,    2.360,
       -1.150,   -2.837,    0.781,    2.137,    2.372
    },
    {  -1.080,   -0.082,   -0.975,    0.085,    0.210,    1.530,   -1.101,
       -0.171,   -0.348,    0.871,   -0.251,    0.527,    2.740,   -0.220,
        2.332,    0.078,   -0.083,   -0.041,    1.107,    2.540,    0.088,
       -0.191,    0.041,   -1.688,   -0.593,   -2.442,   -0.268,    2.079,
        0.817,   -0.073,   -1.704,   -0.535,    0.026,    1.169,    1.248,
        0.797,   -1.198,    0.272,    0.108,   -0.317,    0.117,    0.372,
        0.235,    0.386,   -0.449,  -10.398,   -2.416,    2.278,   -2.180,
        1.221,    2.000,   -0.529,    1.405,    1.942,   -1.793,    2.451,
       -1.233,   -2.802,    0.712,    2.140,    2.575
    },
    {  -1.185,    0.109,   -0.863,    0.035,    0.242,    1.520,   -0.979,
       -0.264,   -0.324,    0.716,   -0.110,    0.610,    2.873,   -0.254,
        2.291,    0.037,   -0.051,   -0.147,    1.087,    2.679,    0.141,
       -0.056,   -0.019,   -1.612,   -0.597,   -2.439,   -0.221,    2.025,
        0.942,   -0.084,   -1.745,   -0.568,   -0.013,    1.177,    1.286,
        0.743,   -1.273,    0.329,    0.147,   -0.256,    0.184,    0.408,
        0.202,    0.260,   -0.452,  -10.282,   -2.316,    2.217,   -2.126,
        0.995,    2.048,   -0.461,    1.257,    1.831,   -1.994,    2.476,
       -1.284,   -2.764,    0.751,    2.101,    2.526
    },
    {  -1.196,    0.077,   -0.814,    0.065,    0.254,    1.516,   -0.959,
       -0.166,   -0.300,    0.801,   -0.173,    0.572,    2.909,   -0.318,
        2.355,    0.095,   -0.077,   -0.040,    1.012,    2.696,    0.098,
       -0.035,    0.013,   -1.577,   -0.617,   -2.404,   -0.248,    2.145,
        0.880,   -0.099,   -1.743,   -0.655,    0.001,    1.262,    1.200,
        0.779,   -1.237,    0.336,    0.168,   -0.256,    0.193,    0.392,
        0.244,    0.178,   -0.355,  -10.095,   -2.328,    2.168,   -2.060,
        0.989,    2.084,   -0.595,    1.220,    1.904,   -2.006,    2.396,
       -1.248,   -2.889,    0.804,    2.277,    2.613
    },
    {  -1.260,    0.066,   -0.858,    0.172,    0.229,    1.496,   -1.020,
       -0.110,   -0.255,    0.809,   -0.169,    0.604,    2.924,   -0.327,
        2.269,    0.081,   -0.114,    0.022,    1.051,    2.676,    0.133,
       -0.130,    0.012,   -1.561,   -0.613,   -2.443,   -0.209,    2.154,
        0.865,   -0.105,   -1.668,   -0.630,   -0.021,    1.335,    1.123,
        0.804,   -1.216,    0.344,    0.203,   -0.312,    0.185,    0.440,
        0.217,    0.226,   -0.399,   -9.943,   -2.505,    2.403,   -2.026,
        1.036,    2.150,   -0.609,    1.012,    2.050,   -2.035,    2.444,
       -1.147,   -3.081,    0.732,    2.387,    2.597
    },
    {  -1.282,    0.092,   -0.781,    0.231,    0.202,    1.432,   -0.961,
       -0.095,   -0.348,    0.715,   -0.261,    0.669,    2.899,   -0.342,
        2.265,    0.085,   -0.218,    0.163,    1.060,    2.513,    0.164,
       -0.158,    0.035,   -1.478,   -0.612,   -2.501,   -0.239,    2.116,
        0.775,   -0.075,   -1.797,   -0.531,    0.078,    1.311,    1.182,
        0.829,   -1.182,    0.365,    0.356,   -0.308,    0.231,    0.317,
        0.322,    0.231,   -0.320,   -9.978,   -2.527,    2.407,   -1.936,
        1.087,    2.012,   -0.538,    1.101,    2.054,   -2.101,    2.309,
       -1.107,   -3.113,    0.844,    2.311,    2.722
    },
    {  -1.366,    0.034,   -0.828,    0.213,    0.219,    1.445,   -0.955,
       -0.139,   -0.344,    0.714,   -0.225,    0.636,    2.949,   -0.444,
        2.259,    0.082,   -0.213,    0.178,    0.977,    2.589,    0.134,
       -0.141,    0.009,   -1.460,   -0.617,   -2.443,   -0.255,    2.138,
        0.831,   -0.047,   -1.903,   -0.546,    0.116,    1.213,    1.116,
        0.745,   -1.135,    0.440,    0.376,   -0.324,    0.221,    0.388,
        0.291,    0.215,   -0.380,  -10.131,   -2.644,    2.469,   -1.769,
        1.117,    1.954,   -0.551,    1.161,    2.058,   -2.019,    2.483,
       -1.136,   -3.178,    0.707,    2.291,    2.665
    },
    {  -1.391,    0.072,   -0.838,    0.219,    0.224,    1.444,   -0.904,
       -0.191,   -0.435,    0.670,   -0.179,    0.590,    3.086,   -0.423,
        2.202,    0.131,   -0.227,    0.146,    1.035,    2.727,    0.134,
       -0.046,   -0.039,   -1.488,   -0.568,   -2.450,   -0.239,    2.136,
        0.927,   -0.039,   -1.849,   -0.512,    0.112,    1.187,    1.062,
        0.818,   -1.182,    0.411,    0.451,   -0.287,    0.240,    0.426,
        0.334,    0.212,   -0.407,  -10.092,   -2.541,    2.358,   -1.794,
        1.125,    1.982,   -0.392,    1.104,    1.922,   -2.003,    2.401,
       -1.125,   -3.213,    0.808,    2.268,    2.656
    },
    {  -1.353,    0.047,   -0.895,    0.132,    0.228,    1.402,   -0.892,
       -0.111,   -0.547,    0.693,   -0.150,    0.616,    3.099,   -0.425,
        2.100,    0.096,   -0.185,    0.181,    1.030,    2.654,    0.160,
       -0.048,    0.019,   -1.458,   -0.610,   -2.425,   -0.216,    2.095,
        1.000,   -0.031,   -1.913,   -0.519,    0.049,    1.112,    0.960,
        0.687,   -1.226,    0.354,    0.489,   -0.233,    0.202,    0.475,
        0.368,    0.212,   -0.433,  -10.195,   -2.548,    2.392,   -1.557,
        0.987,    1.983,   -0.618,    1.133,    2.142,   -2.086,    2.641,
       -1.017,   -3.152,    0.739,    2.452,    2.634
    },
    {  -1.338,    0.077,   -0.751,    0.146,    0.291,    1.410,   -0.916,
       -0.114,   -0.516,    0.652,   -0.198,    0.635,    3.057,   -0.403,
        2.087,    0.112,   -0.228,    0.204,    0.998,    2.561,    0.164,
       -0.033,    0.012,   -1.488,   -0.593,   -2.392,   -0.210,    2.117,
        1.017,   -0.060,   -1.947,   -0.413,    0.013,    1.175,    0.978,
        0.689,   -1.255,    0.411,    0.440,   -0.307,    0.177,    0.476,
        0.419,    0.305,   -0.419,  -10.273,   -2.707,    2.329,   -1.667,
        1.062,    1.992,   -0.364,    0.979,    2.153,   -2.034,    2.667,
       -0.885,   -3.084,    0.697,    2.460,    2.641
    },
    {  -1.310,   -0.076,   -0.748,    0.162,    0.251,    1.392,   -0.922,
       -0.108,   -0.550,    0.568,   -0.233,    0.615,    3.107,   -0.420,
        2.121,    0.188,   -0.211,    0.110,    0.942,    2.490,    0.176,
       -0.029,    0.055,   -1.453,   -0.610,   -2.301,   -0.188,    2.234,
        1.018,   -0.066,   -2.015,   -0.474,    0.066,    1.160,    1.021,
        0.735,   -1.232,    0.381,    0.374,   -0.297,    0.156,    0.448,
        0.445,    0.387,   -0.388,  -10.222,   -2.698,    2.224,   -1.666,
        1.195,    2.065,   -0.379,    0.905,    2.127,   -2.041,    2.722,
       -0.796,   -3.210,    0.704,    2.417,    2.543
    },
    {  -1.242,    0.028,   -0.697,    0.134,    0.233,    1.332,   -0.884,
       -0.129,   -0.580,    0.441,   -0.315,    0.569,    2.932,   -0.297,
        2.107,    0.163,   -0.418,    0.082,    0.928,    2.502,    0.221,
        0.014,    0.021,   -1.540,   -0.605,   -2.281,   -0.174,    2.188,
        0.851,   -0.083,   -2.134,   -0.466,   -0.063,    1.200,    0.928,
        0.808,   -1.198,    0.328,    0.345,   -0.321,    0.208,    0.437,
        0.454,    0.416,   -0.393,  -10.237,   -2.802,    2.082,   -1.557,
        1.213,    2.284,   -0.418,    0.888,    2.013,   -2.050,    2.535,
       -0.756,   -3.024,    0.619,    2.460,    2.611
    },
    {  -1.161,    0.037,   -0.524,    0.152,    0.174,    1.299,   -0.914,
       -0.207,   -0.675,    0.490,   -0.330,    0.588,    2.906,   -0.336,
        2.125,    0.169,   -0.433,    0.011,    0.916,    2.494,    0.301,
        0.015,    0.141,   -1.513,   -0.649,   -2.259,   -0.154,    2.197,
        0.795,   -0.095,   -2.170,   -0.465,    0.052,    1.141,    0.924,
        0.696,   -1.222,    0.367,    0.318,   -0.285,    0.247,    0.449,
        0.494,    0.403,   -0.402,  -10.265,   -2.699,    1.953,   -1.638,
        1.236,    2.189,   -0.309,    0.930,    1.973,   -2.039,    2.343,
       -0.835,   -2.997,    0.760,    2.383,    2.639
    },
    {  -1.254,    0.037,   -0.595,    0.155,    0.239,    1.318,   -0.873,
       -0.096,   -0.603,    0.529,   -0.259,    0.433,    2.909,   -0.289,
        2.034,    0.167,   -0.379,   -0.014,    0.996,    2.516,    0.246,
        0.025,    0.113,   -1.469,   -0.658,   -2.376,   -0.156,    2.183,
        0.755,   -0.091,   -2.109,   -0.530,   -0.006,    1.294,    0.957,
        0.778,   -1.278,    0.298,    0.261,   -0.292,    0.184,    0.557,
        0.439,    0.416,   -0.409,  -10.222,   -2.670,    1.978,   -1.536,
        1.303,    2.009,   -0.349,    0.821,    2.029,   -2.002,    2.624,
       -0.758,   -2.804,    0.645,    2.381,    2.549
    },
    {  -1.326,   -0.012,   -0.692,    0.109,    0.192,    1.385,   -0.809,
       -0.094,   -0.525,    0.488,   -0.278,    0.408,    2.808,   -0.298,
        2.059,    0.225,   -0.314,   -0.082,    1.099,    2.307,    0.163,
        0.045,    0.108,   -1.428,   -0.630,   -2.480,   -0.201,    2.093,
        0.781,   -0.089,   -2.212,   -0.624,    0.004,    1.321,    1.009,
        0.779,   -1.214,    0.319,    0.252,   -0.326,    0.206,    0.515,
        0.443,    0.360,   -0.391,  -10.129,   -2.719,    1.911,   -1.488,
        1.267,    2.061,   -0.274,    0.681,    2.168,   -2.129,    2.655,
       -0.790,   -2.779,    0.610,    2.554,    2.595
    },
    {  -1.322,    0.030,   -0.560,    0.287,    0.242,    1.407,   -0.821,
       -0.024,   -0.439,    0.555,   -0.273,    0.485,    2.832,   -0.357,
        2.016,    0.210,   -0.302,   -0.105,    1.021,    2.264,    0.183,
       -0.071,    0.069,   -1.445,   -0.726,   -2.454,   -0.166,    2.269,
        0.729,   -0.057,   -2.032,   -0.549,    0.108,    1.319,    0.987,
        0.693,   -1.208,    0.368,    0.288,   -0.299,    0.214,    0.610,
        0.473,    0.359,   -0.481,  -10.096,   -2.760,    1.989,   -1.256,
        1.166,    1.949,   -0.301,    0.831,    2.023,   -2.196,    2.603,
       -0.798,   -2.978,    0.710,    2.759,    2.799
    },
    {  -1.163,    0.053,   -0.361,    0.340,    0.206,    1.406,   -0.694,
       -0.036,   -0.442,    0.602,   -0.250,    0.493,    2.818,   -0.298,
        2.020,    0.159,   -0.326,   -0.163,    0.917,    2.302,    0.240,
       -0.117,    0.147,   -1.422,   -0.721,   -2.351,   -0.170,    2.340,
        0.849,   -0.113,   -1.966,   -0.656,    0.012,    1.385,    1.070,
        0.693,   -1.335,    0.363,    0.206,   -0.472,    0.199,    0.545,
        0.608,    0.400,   -0.513,  -10.193,   -2.718,    2.169,   -1.436,
        1.176,    1.827,   -0.258,    0.796,    2.063,   -2.173,    2.780,
       -0.880,   -2.854,    0.586,    2.773,    2.856
    },
    {  -1.300,    0.009,   -0.329,    0.191,    0.287,    1.507,   -0.802,
       -0.027,   -0.761,    0.542,   -0.285,    0.438,    2.711,   -0.301,
        2.135,    0.139,   -0.483,   -0.086,    0.970,    2.072,    0.056,
       -0.169,    0.098,   -1.577,   -0.682,   -2.564,   -0.243,    2.256,
        1.033,   -0.072,   -1.823,   -0.522,   -0.140,    1.381,    1.098,
        0.664,   -1.354,    0.270,    0.253,   -0.462,    0.238,    0.555,
        0.598,    0.347,   -0.571,  -10.218,   -2.733,    1.962,   -1.437,
        1.241,    1.976,   -0.265,    0.908,    1.987,   -1.953,    2.793,
       -0.778,   -2.770,    0.368,    2.708,    2.776
    },
    {  -1.258,    0.022,   -0.343,    0.200,    0.260,    1.508,   -0.774,
        0.020,   -0.673,    0.525,   -0.241,    0.456,    2.686,   -0.284,
        2.066,    0.145,   -0.401,   -0.135,    0.859,    2.174,    0.018,
       -0.129,    0.067,   -1.535,   -0.688,   -2.538,   -0.250,    2.233,
        0.922,   -0.090,   -1.797,   -0.483,   -0.114,    1.401,    1.198,
        0.660,   -1.314,    0.258,    0.241,   -0.418,    0.243,    0.499,
        0.545,    0.343,   -0.513,  -10.219,   -2.815,    1.952,   -1.506,
        1.359,    1.925,   -0.369,    0.758,    2.030,   -2.051,    2.803,
       -0.840,   -2.732,    0.549,    2.567,    2.784
    },
    {  -1.292,    0.044,   -0.346,    0.193,    0.241,    1.440,   -0.711,
        0.012,   -0.716,    0.602,   -0.266,    0.500,    2.774,   -0.282,
        2.089,    0.115,   -0.409,   -0.082,    0.978,    2.212,    0.019,
       -0.154,    0.082,   -1.567,   -0.661,   -2.619,   -0.211,    2.275,
        0.948,   -0.062,   -1.874,   -0.502,   -0.147,    1.397,    1.131,
        0.613,   -1.311,    0.369,    0.238,   -0.395,    0.205,    0.508,
        0.491,    0.363,   -0.518,  -10.120,   -2.812,    2.077,   -1.388,
        1.312,    2.008,   -0.462,    0.727,    2.004,   -2.036,    2.947,
       -0.810,   -2.817,    0.632,    2.467,    2.741
    },
    {  -1.286,    0.094,   -0.435,    0.239,    0.242,    1.410,   -0.735,
       -0.069,   -0.562,    0.681,   -0.308,    0.481,    2.760,   -0.253,
        2.045,    0.127,   -0.401,   -0.106,    0.877,    2.127,    0.007,
       -0.186,    0.167,   -1.514,   -0.760,   -2.675,   -0.224,    2.170,
        1.017,   -0.037,   -1.926,   -0.515,   -0.170,    1.422,    1.166,
        0.649,   -1.364,    0.340,    0.286,   -0.361,    0.165,    0.549,
        0.497,    0.317,   -0.561,  -10.008,   -2.864,    2.110,   -1.417,
        1.136,    1.807,   -0.470,    0.940,    1.854,   -1.951,    3.045,
       -0.779,   -3.043,    0.744,    2.448,    2.751
    },
    {  -1.207,    0.074,   -0.397,    0.237,    0.214,    1.446,   -0.695,
       -0.077,   -0.569,    0.744,   -0.316,    0.542,    2.791,   -0.275,
        2.011,    0.120,   -0.455,   -0.073,    0.937,    2.147,   -0.029,
       -0.233,    0.174,   -1.637,   -0.732,   -2.726,   -0.215,    2.172,
        0.993,   -0.059,   -1.906,   -0.487,   -0.163,    1.438,    1.173,
        0.638,   -1.382,    0.251,    0.257,   -0.382,    0.192,    0.470,
        0.477,    0.312,   -0.555,   -9.922,   -2.881,    2.172,   -1.514,
        1.120,    1.830,   -0.450,    0.899,    1.837,   -1.865,    3.078,
       -0.885,   -3.030,    0.708,    2.562,    2.663
    },
    {  -1.237,   -0.003,   -0.448,    0.247,    0.239,    1.411,   -0.570,
        0.023,   -0.633,    0.819,   -0.386,    0.517,    2.811,   -0.328,
        1.977,    0.077,   -0.341,   -0.151,    1.085,    2.205,   -0.085,
       -0.231,    0.160,   -1.615,   -0.763,   -2.730,   -0.253,    2.083,
        0.943,   -0.094,   -1.952,   -0.326,   -0.143,    1.415,    1.012,
        0.575,   -1.427,    0.122,    0.265,   -0.445,    0.264,    0.513,
        0.625,    0.399,   -0.635,   -9.991,   -2.902,    2.097,   -1.564,
        1.052,    1.869,   -0.605,    0.665,    1.988,   -1.886,    2.976,
       -0.977,   -2.916,    0.750,    2.504,    2.668
    },
    {  -1.279,    0.030,   -0.425,    0.287,    0.216,    1.368,   -0.612,
       -0.058,   -0.673,    0.761,   -0.407,    0.580,    2.829,   -0.341,
        1.980,    0.024,   -0.348,   -0.089,    1.121,    2.307,   -0.115,
       -0.262,    0.181,   -1.588,   -0.809,   -2.765,   -0.258,    2.108,
        0.982,   -0.086,   -1.996,   -0.371,   -0.145,    1.457,    1.148,
        0.573,   -1.428,    0.132,    0.225,   -0.454,    0.276,    0.528,
        0.587,    0.430,   -0.592,  -10.033,   -3.022,    2.051,   -1.483,
        1.155,    1.969,   -0.683,    0.623,    1.987,   -2.043,    3.015,
       -0.902,   -3.083,    0.828,    2.509,    2.538
    },
    {  -1.297,    0.013,   -0.300,    0.315,    0.206,    1.431,   -0.588,
        0.022,   -0.719,    0.866,   -0.330,    0.604,    2.825,   -0.326,
        2.132,    0.109,   -0.339,   -0.160,    1.114,    2.251,   -0.034,
       -0.296,    0.136,   -1.627,   -0.744,   -2.853,   -0.249,    2.119,
        0.893,   -0.092,   -1.962,   -0.386,   -0.237,    1.423,    1.143,
        0.527,   -1.383,    0.257,    0.236,   -0.537,    0.319,    0.581,
        0.615,    0.366,   -0.668,  -10.029,   -2.868,    2.001,   -1.466,
        1.155,    1.958,   -0.671,    0.752,    1.842,   -2.042,    3.079,
       -0.941,   -3.101,    0.804,    2.305,    2.614
    },
    {  -1.320,    0.101,   -0.285,    0.315,    0.219,    1.375,   -0.602,
       -0.056,   -0.661,    0.814,   -0.346,    0.655,    2.783,   -0.346,
        2.069,    0.148,   -0.434,   -0.148,    1.201,    2.192,   -0.073,
       -0.338,    0.118,   -1.690,   -0.692,   -2.836,   -0.261,    2.151,
        0.818,   -0.080,   -2.025,   -0.360,   -0.405,    1.474,    1.172,
        0.529,   -1.396,    0.297,    0.163,   -0.626,    0.273,    0.511,
        0.604,    0.356,   -0.607,   -9.976,   -3.025,    2.118,   -1.559,
        1.077,    1.718,   -0.460,    0.677,    1.708,   -2.145,    3.108,
       -1.091,   -3.097,    0.713,    2.437,    2.744
    },
    {  -1.356,    0.105,   -0.236,    0.290,    0.239,    1.341,   -0.588,
       -0.026,   -0.719,    0.702,   -0.338,    0.693,    2.823,   -0.393,
        2.040,    0.142,   -0.484,   -0.134,    1.306,    2.204,   -0.124,
       -0.392,    0.145,   -1.667,   -0.718,   -2.893,   -0.239,    2.131,
        0.774,   -0.068,   -1.990,   -0.390,   -0.364,    1.471,    1.168,
        0.558,   -1.379,    0.397,    0.092,   -0.647,    0.253,    0.497,
        0.572,    0.313,   -0.668,  -10.063,   -3.098,    2.210,   -1.598,
        1.109,    1.720,   -0.483,    0.655,    1.741,   -2.188,    3.105,
       -1.131,   -2.982,    0.651,    2.410,    2.696
    },
    {  -1.474,    0.094,   -0.273,    0.269,    0.274,    1.468,   -0.532,
       -0.041,   -0.696,    0.778,   -0.416,    0.747,    2.901,   -0.420,
        2.040,    0.122,   -0.411,   -0.195,    1.327,    2.181,   -0.221,
       -0.287,    0.186,   -1.618,   -0.730,   -2.745,   -0.234,    2.112,
        0.802,   -0.080,   -2.043,   -0.405,   -0.384,    1.477,    1.158,
        0.577,   -1.374,    0.395,    0.163,   -0.577,    0.218,    0.523,
        0.460,    0.264,   -0.707,   -9.940,   -3.198,    2.136,   -1.471,
        0.998,    1.821,   -0.513,    0.692,    1.647,   -2.295,    3.078,
       -1.136,   -3.124,    0.833,    2.353,    2.639
    },
    {  -1.402,    0.109,   -0.297,    0.245,    0.257,    1.575,   -0.585,
       -0.059,   -0.693,    0.836,   -0.464,    0.926,    2.906,   -0.440,
        2.024,    0.170,   -0.537,   -0.387,    1.379,    2.092,   -0.253,
       -0.235,    0.077,   -1.810,   -0.741,   -2.763,   -0.220,    2.128,
        0.703,   -0.072,   -2.105,   -0.429,   -0.331,    1.433,    1.269,
        0.445,   -1.347,    0.290,    0.242,   -0.566,    0.252,    0.452,
        0.291,    0.310,   -0.511,   -9.864,   -3.199,    1.983,   -1.236,
        1.096,    1.668,   -0.471,    0.809,    1.643,   -2.357,    3.329,
       -1.017,   -3.055,    0.886,    2.347,    2.848
    },
    {  -1.388,    0.090,   -0.262,    0.344,    0.228,    1.483,   -0.552,
       -0.005,   -0.754,    0.921,   -0.460,    0.867,    2.889,   -0.402,
        2.006,    0.110,   -0.414,   -0.303,    1.392,    2.070,   -0.321,
       -0.314,    0.101,   -1.692,   -0.731,   -2.817,   -0.213,    2.140,
        0.718,   -0.092,   -2.125,   -0.336,   -0.294,    1.424,    1.115,
        0.424,   -1.370,    0.347,    0.233,   -0.491,    0.244,    0.484,
        0.401,    0.325,   -0.562,   -9.997,   -3.239,    1.996,   -1.327,
        1.068,    1.753,   -0.596,    0.647,    1.827,   -2.262,    3.208,
       -1.053,   -3.092,    0.847,    2.587,    2.757
    },
    {  -1.383,    0.098,   -0.147,    0.326,    0.378,    1.570,   -0.617,
        0.052,   -0.792,    0.876,   -0.463,    0.754,    2.911,   -0.520,
        2.002,    0.143,   -0.350,   -0.374,    1.412,    2.180,   -0.346,
       -0.304,    0.077,   -1.719,   -0.758,   -2.802,   -0.232,    2.163,
        0.730,   -0.096,   -2.199,   -0.335,   -0.307,    1.429,    1.101,
        0.476,   -1.397,    0.438,    0.260,   -0.470,    0.275,    0.508,
        0.428,    0.347,   -0.593,  -10.037,   -3.209,    1.867,   -1.286,
        1.143,    1.707,   -0.481,    0.700,    1.713,   -2.164,    3.042,
       -0.997,   -2.866,    0.799,    2.672,    2.703
    },
    {  -1.363,    0.103,   -0.041,    0.333,    0.195,    1.742,   -0.584,
        0.012,   -0.595,    0.810,   -0.517,    0.698,    2.964,   -0.446,
        1.987,    0.223,   -0.241,   -0.498,    1.209,    2.119,   -0.216,
       -0.230,    0.205,   -1.690,   -0.806,   -2.876,   -0.216,    2.351,
        0.745,   -0.093,   -2.236,   -0.228,   -0.173,    1.674,    1.297,
        0.418,   -1.330,    0.330,    0.293,   -0.423,    0.304,    0.522,
        0.485,    0.352,   -0.546,   -9.919,   -3.277,    1.802,   -1.357,
        0.967,    1.717,   -0.594,    0.590,    1.788,   -2.091,    3.087,
       -0.838,   -3.020,    0.725,    2.745,    2.979
    },
    {  -1.327,    0.104,   -0.049,    0.315,    0.276,    1.645,   -0.607,
        0.019,   -0.556,    0.874,   -0.469,    0.784,    2.878,   -0.494,
        2.060,    0.173,   -0.364,   -0.492,    1.373,    2.225,   -0.303,
       -0.296,    0.120,   -1.773,   -0.766,   -2.899,   -0.220,    2.173,
        0.774,   -0.085,   -2.328,   -0.244,   -0.297,    1.571,    1.281,
        0.399,   -1.283,    0.447,    0.286,   -0.411,    0.223,    0.479,
        0.507,    0.363,   -0.530,  -10.057,   -3.455,    1.840,   -1.341,
        0.983,    1.517,   -0.498,    0.668,    1.764,   -2.183,    3.304,
       -0.809,   -3.075,    0.746,    2.989,    2.858
    },
    {  -1.326,    0.128,   -0.073,    0.357,    0.285,    1.598,   -0.572,
        0.010,   -0.645,    0.928,   -0.492,    0.774,    2.910,   -0.453,
        2.091,    0.190,   -0.306,   -0.547,    1.446,    2.180,   -0.325,
       -0.366,    0.146,   -1.701,   -0.825,   -2.886,   -0.229,    2.109,
        0.815,   -0.101,   -2.354,   -0.176,   -0.424,    1.546,    1.302,
        0.436,   -1.378,    0.480,    0.259,   -0.430,    0.194,    0.477,
        0.469,    0.386,   -0.584,   -9.964,   -3.312,    1.909,   -1.229,
        1.067,    1.586,   -0.701,    0.580,    1.852,   -2.223,    3.218,
       -0.926,   -3.021,    0.734,    2.964,    3.003
    }
  };


  double netfun(std::vector<double>& in, const double* w)
  {
    double x00 = in[0];
    double x01 = in[1];
    double x;

    //Layer 1, Node 0
    x = w[0];
    x = x + w[1] * x00;
    x = x + w[2] * x01;
    double x10 = tanh(x);

    //Layer 1, Node 1
    x = w[3];
    x = x + w[4] * x00;
    x = x + w[5] * x01;
    double x11 = tanh(x);

    //Layer 1, Node 2
    x = w[6];
    x = x + w[7] * x00;
    x = x + w[8] * x01;
    double x12 = tanh(x);

    //Layer 1, Node 3
    x = w[9];
    x = x + w[10] * x00;
    x = x + w[11] * x01;
    double x13 = tanh(x);

    //Layer 1, Node 4
    x = w[12];
    x = x + w[13] * x00;
    x = x + w[14] * x01;
    double x14 = tanh(x);

    //Layer 1, Node 5
    x = w[15];
    x = x + w[16] * x00;
    x = x + w[17] * x01;
    double x15 = tanh(x);

    //Layer 1, Node 6
    x = w[18];
    x = x + w[19] * x00;
    x = x + w[20] * x01;
    double x16 = tanh(x);

    //Layer 1, Node 7
    x = w[21];
    x = x + w[22] * x00;
    x = x + w[23] * x01;
    double x17 = tanh(x);

    //Layer 1, Node 8
    x = w[24];
    x = x + w[25] * x00;
    x = x + w[26] * x01;
    double x18 = tanh(x);

    //Layer 1, Node 9
    x = w[27];
    x = x + w[28] * x00;
    x = x + w[29] * x01;
    double x19 = tanh(x);

    //Layer 1, Node 10
    x = w[30];
    x = x + w[31] * x00;
    x = x + w[32] * x01;
    double x110 = tanh(x);

    //Layer 1, Node 11
    x = w[33];
    x = x + w[34] * x00;
    x = x + w[35] * x01;
    double x111 = tanh(x);

    //Layer 1, Node 12
    x = w[36];
    x = x + w[37] * x00;
    x = x + w[38] * x01;
    double x112 = tanh(x);

    //Layer 1, Node 13
    x = w[39];
    x = x + w[40] * x00;
    x = x + w[41] * x01;
    double x113 = tanh(x);

    //Layer 1, Node 14
    x = w[42];
    x = x + w[43] * x00;
    x = x + w[44] * x01;
    double x114 = tanh(x);

    //Layer 2, Node 0
    x = w[45];
    x = x + w[46] * x10;
    x = x + w[47] * x11;
    x = x + w[48] * x12;
    x = x + w[49] * x13;
    x = x + w[50] * x14;
    x = x + w[51] * x15;
    x = x + w[52] * x16;
    x = x + w[53] * x17;
    x = x + w[54] * x18;
    x = x + w[55] * x19;
    x = x + w[56] * x110;
    x = x + w[57] * x111;
    x = x + w[58] * x112;
    x = x + w[59] * x113;
    x = x + w[60] * x114;
    double x20 = 1.0/(1.0+exp(-x));
    return x20;
  }
}; // End anonymous namespace

//-----------------------------------------------------------------------------
// Compute average over networks. Default is to use all networks
//-----------------------------------------------------------------------------

double SingleMu_2012_HLT_j1ptg200_100K(std::vector<double>& inputvars,
                                       int first=0,
                                       int last=nnetworks-1)
{
  if ( first < 0 ) first = 0;
  if ( last  < 0 ) last  = nnetworks-1;
  if ( last  > nnetworks-1 ) last = nnetworks-1;
  if ( first > last )
    {
      std::cerr << "** SingleMu_2012_HLT_j1ptg200_100K ** first-index > last-index"
                << std::endl; exit(3);
    }

  // Compute average over networks
  std::vector<double> in(ninputs);
  in[0] = (inputvars[0] - mean[0]) / sigma[0];
  in[1] = (inputvars[1] - mean[1]) / sigma[1];

  int   n = last - first + 1;
  double x = 0.0;
  for(int i=first; i <= last; i++) x += netfun(in, weight[i]);
  return x / n;
}

extern "C" double SingleMu_2012_HLT_j1ptg200_100K_dl(std::vector<double>& in,
                                                     int first=0,
                                                     int last=nnetworks-1)
{
  return SingleMu_2012_HLT_j1ptg200_100K(in, first, last);
}

extern "C" double SingleMu_2012_HLT_j1ptg200_100K_dl2(double* in,
                                                      int first=0,
                                                      int last=nnetworks-1)
{
  std::vector<double> invec;

  invec.push_back(in[0]);
  invec.push_back(in[1]);

  return SingleMu_2012_HLT_j1ptg200_100K(invec, first, last);
}
